<DATA> ids.train.scp
<MEAN> 26
 -5.8344436318879345e-09 -2.6662780038197553e-10 -1.1104263686496393e-09 -2.9156534171181911e-09 2.948589792459494e-10 -4.6350106298754889e-09 2.1761533707646529e-09 -2.4086684966859936e-09 8.881058350958449e-10 -8.8614533656362446e-10 1.5291888551319183e-09 2.7047037750512752e-09 13.334326936992646 -0.0020668509288592459 -0.0005141895925614273 -0.00060891651521598645 -0.00019764949455242662 -0.00031484186085483132 -9.1574459835534655e-05 -0.00018136605171626102 0.00010692398390690347 -2.9124024400321218e-05 0.00014405462157685979 0.0001576189878311347 0.00033436656925153686 0.00042592808665996122
<VARIANCE> 26
 6.7777445662899467 1.3904037004815346 1.9591108795900378 1.0972871947649558 0.66971370646782535 0.39980086126935677 0.29796289322036129 0.23627590941459339 0.23542000551758391 0.12636170383566644 0.16117958039637797 0.22170621928736828 11.11399582298705 0.2251562191017534 0.06504355584313673 0.056864065586324744 0.042373306790157717 0.029523195449855592 0.018477651810609255 0.016028372333423187 0.015824028365816402 0.012018747861819556 0.010191819264080746 0.010665340122896317 0.010192922305847722 0.23115705883122917